42 100 1068
qcbacc -0.004234394524246454 -0.0016736633842810988 1.7750611732481048E-5 0.009917927905917168 0.005775812081992626 0.002412243513390422 -0.00722102914005518 -0.001755291479639709 0.001035150489769876 -0.004352341406047344 4.178552480880171E-4 0.0018073873361572623 0.009853817522525787 0.012622125446796417 0.0036171444226056337 3.151597629766911E-4 -0.00482218386605382 -2.539692213758826E-4 -0.002817130647599697 0.004419134464114904 -0.006142960861325264 -0.005333644803613424 -0.007529840804636478 0.011268498376011848 0.007048634812235832 -0.0043626995757222176 -0.010943764820694923 0.00683310953900218 -0.007709620054811239 -0.006794207263737917 0.002103220671415329 -0.006232192274183035 0.012409214861690998 -0.005406456999480724 -0.0030222823843359947 -0.005530228838324547 -0.003748568706214428 -0.00841099675744772 0.011203783564269543 0.0022467407397925854 -0.0051192911341786385 -0.008157875388860703 0.012533304281532764 0.002526429947465658 -0.009088953956961632 0.006955433636903763 -0.004210200160741806 0.006847132463008165 0.021184338256716728 0.003453262848779559 -0.004967599641531706 -0.00666126050055027 -0.0012718914076685905 0.0047540608793497086 0.007234709803014994 0.008683508262038231 0.002351081930100918 0.015023554675281048 0.009688814170658588 0.008740403689444065 0.0011558388359844685 6.994223222136497E-4 -0.010970456525683403 0.013451757840812206 -0.006396869197487831 0.006116561591625214 0.012596353888511658 -0.007041107397526503 0.01077419426292181 -0.003338222624734044 0.010246333666145802 -0.0024761296808719635 0.007745674345642328 -0.0015685693360865116 2.3017710191197693E-4 -0.0030334501061588526 0.005467412993311882 0.003390498459339142 -0.0116186011582613 -1.0477145406184718E-4 -0.0028990483842790127 0.006501317955553532 -0.0035410127602517605 -5.044395220465958E-4 -0.006220100447535515 -0.004117943346500397 -0.002793768187984824 -0.01864011585712433 0.0045980592258274555 0.005843833088874817 -6.979614263400435E-4 -0.0026656033005565405 -0.0028836438432335854 0.005216881167143583 -0.00242668017745018 0.0064170085825026035 0.012657856568694115 -0.005830945912748575 0.0019573213066905737 0.00805644504725933
pbde -0.003942803014069796 -0.005767700262367725 -0.0026070321910083294 0.003239237004891038 0.0064561557956039906 -0.0031289125327020884 -0.008463967591524124 0.0016988140996545553 -6.483603501692414E-4 -6.347350426949561E-4 0.003665626747533679 8.103345753625035E-4 0.005019608419388533 0.012552359141409397 0.008153118193149567 0.00618618493899703 -0.008537663146853447 -0.008043412119150162 0.007034813053905964 0.005665035452693701 -0.003344574710354209 -0.002618446247652173 -0.014946455135941505 0.01678413525223732 0.005973676219582558 -0.0015062090242281556 -0.01167422067373991 -3.549614630173892E-4 -0.00621065916493535 -0.006891781464219093 0.009865332394838333 -0.006675201468169689 0.016961362212896347 -0.014277131296694279 -0.005280721001327038 -0.002227392513304949 -0.0035893286112695932 -0.0126833226531744 0.011004328727722168 0.0036350174341350794 -0.013615173287689686 -0.009656336158514023 0.015393899753689766 0.003796714125201106 -0.004612634424120188 0.0010868953540921211 -0.0022752578370273113 -0.0024243141524493694 0.027644528076052666 0.0014849024591967463 -0.003996895160526037 -0.007994639687240124 8.944213041104376E-4 0.012376784346997738 0.0036591223906725645 0.011456458829343319 0.013066265732049942 0.02173689752817154 0.004673892166465521 0.007935386151075363 4.993655602447689E-4 0.002357753925025463 -0.0031633118633180857 0.02122834138572216 -0.013982254080474377 0.016134291887283325 0.026675183326005936 -6.025362017680891E-5 0.006937666330486536 -0.0019473249558359385 0.02380198985338211 -0.004960271064192057 0.013044457882642746 -0.0028336832765489817 -0.002426367485895753 -0.0038954883348196745 0.003974969498813152 0.007492515258491039 -0.00866248831152916 0.0027974527329206467 -0.007023799233138561 0.0034418737050145864 1.8522038590162992E-4 -0.00596084538847208 -0.005010260734707117 0.0012640133500099182 -0.010378343984484673 -0.023171784356236458 -8.369632414542139E-4 0.0063436878845095634 -0.007538465782999992 0.001116268103942275 -0.00396950775757432 0.015169760212302208 -5.528728943318129E-4 -0.0028219050727784634 0.004789683502167463 -0.007807470858097076 -8.66433372721076E-4 0.018278416246175766
qcbieh 0.0039891572669148445 -3.46911110682413E-4 -2.0383877563290298E-4 -0.001479904167354107 0.001175147364847362 -0.001904405769892037 1.5289719158317894E-5 -0.0010253359796479344 0.0016276710666716099 -8.233606931753457E-4 0.008931626565754414 9.693182073533535E-4 -0.006667112000286579 -0.0018286588601768017 0.006971203722059727 0.005221798084676266 -0.0019829629454761744 -0.005039711948484182 0.005469849333167076 7.809769012965262E-4 0.004573492333292961 0.0021316406782716513 -8.817366906441748E-4 5.191015661694109E-4 0.005740622989833355 -0.0024240026250481606 -0.007326293736696243 -0.005954970605671406 -0.0068484582006931305 -0.006489699240773916 0.003261565463617444 -0.0075604901649057865 2.5646539870649576E-4 -0.002715321257710457 0.0021865239832550287 0.002764251548796892 6.2278195400722325E-6 -0.00590074947103858 -0.0012147168163210154 0.0051214974373579025 -0.009126692079007626 0.0026443139649927616 8.196422713808715E-4 -0.003203426953405142 1.1275082943029702E-4 -0.008481648750603199 4.668010224122554E-4 -0.003756770631298423 0.005191415548324585 -0.007691806647926569 0.0013483442598953843 7.198341772891581E-4 -0.0028192440513521433 0.0052245305851101875 -0.0017469024751335382 0.005452804267406464 0.003594260197132826 0.0013889239635318518 0.0044595529325306416 -0.0013759707799181342 3.424493770580739E-4 -0.005553688388317823 -0.0033551964443176985 -5.521182902157307E-4 0.0019309970084577799 0.008436394855380058 0.009546289220452309 0.0023937637452036142 0.0045080240815877914 -0.007260806392878294 0.005658825393766165 0.002799913752824068 -0.0019385049818083644 0.0031115903984755278 -1.2992713891435415E-5 -0.002825802890583873 -0.005516027566045523 0.009594223462045193 5.395248299464583E-4 -0.0056564947590231895 0.0015649396227672696 -0.001404455746524036 8.856331114657223E-4 -2.845374110620469E-4 0.002770458348095417 -0.0031572943553328514 0.004024147987365723 -0.0011468929005786777 -2.930354094132781E-4 -2.1192542044445872E-4 -0.007126171141862869 -0.006388612557202578 -0.007331239525228739 0.007086653728038073 -0.00237679504789412 -0.001313402084633708 -0.0027809368912130594 1.0398683662060648E-4 -0.0035188670735806227 0.00929243117570877
qbaicii -7.212933269329369E-4 -0.0038360687904059887 -0.003921836614608765 1.7501646652817726E-5 6.173379370011389E-4 0.0013011667178943753 -0.007884606719017029 0.0011875696945935488 0.0037473426200449467 0.002599353203549981 0.0035293884575366974 -0.003649665741249919 0.010984674096107483 0.004836685955524445 0.0038719726726412773 0.004404937848448753 -0.0035798633471131325 -0.006504273973405361 0.004983536899089813 0.0040338123217225075 -0.001431755255907774 -0.004215404856950045 -0.011243226006627083 0.009772463701665401 0.0013846876099705696 -0.0018551284447312355 -0.010396741330623627 -6.274953484535217E-4 -0.004565494600683451 -0.00428600050508976 0.004472644068300724 -0.0016799101140350103 0.009786357171833515 -0.005094908177852631 -0.0027705717366188765 -0.0030384629499167204 -0.004449308384209871 -1.9171065650880337E-4 0.009554109536111355 -0.005945065524429083 -0.012492048554122448 -0.0020506964065134525 0.011977482587099075 0.006521039642393589 -0.007886743173003197 0.007175287697464228 0.004547575954347849 0.006378854624927044 0.02236943319439888 0.003195480676367879 -0.002197287743911147 -0.01160408928990364 0.0065983980894088745 0.0034959460608661175 0.0023490111343562603 0.0010301843285560608 0.008894717320799828 0.012098278850317001 0.005425829440355301 0.004731172230094671 0.0028374940156936646 0.001091483747586608 -0.00875026360154152 0.007586007937788963 -0.00909540243446827 0.00626184418797493 0.021265722811222076 -0.010194171220064163 0.011356600560247898 -7.980983355082572E-5 0.013338656164705753 -0.005991569720208645 0.012701775878667831 -0.0012599383480846882 0.0032074926421046257 -0.006489218212664127 0.006662221159785986 1.9343849271535873E-4 -0.012185938656330109 0.003547289874404669 -7.675368688069284E-4 -0.0019887073431164026 -0.00533117912709713 -0.0034449733793735504 -0.006521661300212145 0.0014902882976457477 -0.0012926124036312103 -0.010064372792840004 -3.652595914900303E-4 0.010343325324356556 0.004363299813121557 0.0020620038267225027 -0.004331825766712427 0.00574718602001667 -0.005848010536283255 0.0033490555360913277 0.007025855127722025 -0.00545421801507473 -0.0020910275634378195 0.00980279128998518
qbagcibce 2.514990628696978E-4 -0.005022590979933739 -0.0020041880197823048 0.0032962425611913204 0.005918415263295174 -0.005263678729534149 -4.1863316437229514E-4 -0.002852367702871561 -0.001114377286285162 6.049558287486434E-4 0.005089694634079933 0.0046946266666054726 -0.0016136595513671637 6.114064017310739E-4 0.003153363009914756 0.001778417732566595 -0.0014147758483886719 -0.006054621189832687 1.9683917344082147E-4 0.00506808003410697 -0.001736304140649736 -9.74364869762212E-4 -0.0025851496029645205 0.007997049950063229 -0.0011074213543906808 0.0018038013949990273 -5.650714156217873E-4 5.738585023209453E-4 -0.0011178033892065287 -8.703352068550885E-4 -5.920244730077684E-4 -0.0032647247426211834 0.006625776179134846 -0.0035472228191792965 5.073136417195201E-4 0.004979973658919334 0.003121561137959361 -0.0023904750123620033 -0.004734891466796398 0.0018032731022685766 -0.0044576250948011875 0.002973994007334113 0.007909879088401794 -0.0010532456217333674 -0.0038894235622137785 -0.006229256745427847 -0.005497409962117672 -9.512307005934417E-4 0.0016871922416612506 -0.008143443614244461 0.0016054973239079118 -0.0012590499827638268 -0.002670846413820982 0.0027949458453804255 0.003132191486656666 -0.0025714694056659937 5.316059105098248E-4 0.0011438956717029214 0.0015493903774768114 0.006288434378802776 0.002667495980858803 -0.001643689232878387 -0.005767262540757656 2.534413360990584E-4 0.0033538348507136106 0.007960064336657524 0.007379431277513504 -0.002216489054262638 8.097191457636654E-4 -0.008578608743846416 -0.0014830958098173141 6.213063606992364E-4 -0.0010050537530332804 0.0024533672258257866 -0.003741808235645294 -4.644271684810519E-4 -0.004755448084324598 0.0019136841874569654 -0.0012744986452162266 -0.0023329476825892925 0.0017694149864837527 0.0014866699930280447 -0.0016794211696833372 -0.006688052322715521 3.3995884587056935E-4 0.0014063263079151511 -0.002620247658342123 -0.005882884841412306 0.0016548540443181992 0.0024629218969494104 0.0014231526292860508 -0.006544324103742838 -0.00839942879974842 0.0014505700673907995 0.003193064359948039 -0.004537041299045086 -0.002598981373012066 -0.0030263157095760107 1.934036845341325E-6 0.008407330140471458
qhcehf 0.00448560668155551 -0.007558366283774376 0.0032097811345010996 0.002930563408881426 0.0012530529638752341 0.003210898023098707 -0.007673462852835655 0.00523568969219923 -6.043403991498053E-4 -0.0029285906348377466 -0.002533219289034605 -0.004602732136845589 0.00870522577315569 0.013319484889507294 0.004490879364311695 -0.0020842377562075853 0.002673411276191473 -0.0018561766482889652 0.00342158367857337 0.0016217477386817336 -0.0058426703326404095 -0.012291790917515755 -0.013540375977754593 0.012800425291061401 0.006478393450379372 -0.0016313421074301004 -0.013052660971879959 0.004137319978326559 -0.003980189561843872 -7.597723160870373E-4 0.005626867525279522 -0.003196899313479662 0.01920635625720024 -0.011644676327705383 -0.006507223471999168 -0.008125749416649342 -0.007423806935548782 -0.0026094091590493917 0.007037609815597534 0.0026619399432092905 -0.006996292620897293 -0.006550375837832689 0.012727973982691765 0.007147629279643297 -0.00347972777672112 0.00502493092790246 -0.005135014653205872 0.0018464094027876854 0.021438002586364746 -9.10954549908638E-4 -0.0022669106256216764 -0.0038393207360059023 0.0021842308342456818 0.011943979188799858 0.006129985209554434 0.007553161587566137 0.0035211038775742054 0.016837911680340767 0.011064297519624233 0.009626898914575577 0.006374850869178772 0.002473995555192232 -0.009764913469552994 0.014198465272784233 -0.005978706758469343 0.005139113869518042 0.01985333114862442 -0.0031561478972434998 0.006618710234761238 0.004655537661164999 0.009791020303964615 -0.005679054651409388 0.012681035324931145 0.0021374747157096863 0.004425338935106993 0.0016846409998834133 0.012109961360692978 0.008291320875287056 -0.012860570102930069 0.0020423380192369223 -0.004491966217756271 0.002070455579087138 0.002656296594068408 0.001807618886232376 -0.007803489454090595 -0.002989537315443158 -0.008992426097393036 -0.018640536814928055 0.006306419149041176 0.005236008670181036 6.996607407927513E-4 0.002871939679607749 1.3375144044402987E-4 0.011776909232139587 -0.0038889311254024506 0.005098492838442326 0.00871372316032648 -0.013187885284423828 0.001524360035546124 0.009192700497806072
pbbi -0.004597197752445936 -0.0027957656420767307 -0.0031823054887354374 0.003139443462714553 -0.002213273663073778 -0.004643079824745655 -0.0036780419759452343 0.0047763641923666 0.002608779352158308 0.0039047307800501585 0.007739831693470478 -0.0016851723194122314 0.004436960909515619 0.008133846335113049 0.008078689686954021 -4.6710448805242777E-4 -0.004205946810543537 -0.007368488237261772 0.0017819999484345317 -9.028366766870022E-4 -0.002192846732214093 0.0015292547177523375 -4.731548542622477E-4 0.01074182242155075 0.0047576953656971455 -0.005914411973208189 -0.009707947261631489 -7.434880826622248E-4 -0.003612946020439267 -0.001492959912866354 -0.0018407388124614954 0.0018335755448788404 0.001695672981441021 -0.009651349857449532 -0.003915136680006981 -0.003460435662418604 -0.0019220680696889758 -0.003798804711550474 -0.001054172171279788 0.006431586109101772 -0.008183603174984455 -0.0028587128035724163 3.3425568835809827E-4 -0.0030368613079190254 -0.008975058794021606 -0.001662663766182959 -0.002211604965850711 0.0020322466734796762 0.011134621687233448 -0.005513292737305164 -0.006087636109441519 -0.0037809708155691624 0.0037234891206026077 0.006421804428100586 0.0031624918337911367 0.00683703925460577 0.0024823232088238 0.010142959654331207 0.002673487178981304 7.940256036818027E-4 0.002267618430778384 -0.004544124938547611 -0.005572919733822346 0.005723778158426285 -0.003949293866753578 0.004865574184805155 0.009999977424740791 0.0026847466360777617 4.578078514896333E-4 -0.0049630580469965935 0.0052735768258571625 9.425943135283887E-4 0.0036169940140098333 -0.004216002766042948 -0.0031745140440762043 0.0022886667866259813 -0.002242086920887232 0.002746567828580737 0.0016908154357224703 7.66734650824219E-4 0.0025711425114423037 0.0011559693375602365 0.0017943570856004953 0.0022866225335747004 -0.0021537630818784237 0.0019219594541937113 -0.0011726043885573745 -0.009395779110491276 0.002986556151881814 0.0012490010121837258 0.001718409126624465 -0.005579761229455471 0.002482888288795948 0.0049038538709282875 0.0033860038965940475 0.002831012010574341 0.002644691849127412 -0.00259048817679286 -0.0017451790627092123 0.004143491853028536
qec 0.004520777612924576 -0.00222227955237031 -0.0023785955272614956 0.0028144291136413813 0.007818975485861301 -0.0028926704544574022 -0.007184213027358055 0.004740273579955101 -0.0035430060233920813 8.448987500742078E-4 0.005471302196383476 0.002238868735730648 0.014848923310637474 0.012632458470761776 0.004700348246842623 -4.908764385618269E-4 0.0013293614611029625 -0.007113675586879253 0.005112167447805405 0.0067457715049386024 -0.008884895592927933 -0.015816986560821533 -0.012331833131611347 0.017223766073584557 0.00981961376965046 -0.008001280948519707 -0.021510714665055275 0.0020203739404678345 -0.01040488202124834 -0.0030057765543460846 0.0046173566952347755 7.832901319488883E-4 0.015557516366243362 -0.008685906417667866 -0.0020582922734320164 -0.006409002467989922 -0.004684620536863804 -0.00898889172822237 0.0134026650339365 1.4043826377019286E-4 -0.008433916606009007 -0.010058894753456116 0.009685699827969074 0.005284383427351713 -0.004601593129336834 0.002046553883701563 -0.0023508151061832905 0.00674308929592371 0.029852591454982758 -5.360569339245558E-4 -0.005287917330861092 -0.007025732658803463 0.001287872320972383 0.008018787018954754 0.00837516225874424 0.010992761701345444 0.008256870321929455 0.017699483782052994 0.00578191876411438 0.01641310192644596 0.004102175123989582 0.002384326420724392 -0.012598823755979538 0.01696671172976494 -0.008102476596832275 0.0073959967121481895 0.026452403515577316 -0.008593384176492691 0.011013426817953587 0.003209542017430067 0.021679237484931946 -0.012068353593349457 0.014552644453942776 1.3842956104781479E-4 0.0011199145810678601 -0.006163587793707848 0.011779248714447021 0.006315517704933882 -0.013414144515991211 -0.0039048739708960056 -0.004257972352206707 0.005808105692267418 0.0011640975717455149 -0.006680605001747608 -0.010982922278344631 0.003959376830607653 -0.0057403817772865295 -0.01891198754310608 -0.0014263640623539686 0.0067649600096046925 0.0011834710603579879 0.0019987644627690315 0.002086884807795286 0.012651564553380013 5.669291131198406E-4 0.006111881695687771 0.007363004144281149 -0.009194143116474152 -0.0037179728969931602 0.018177878111600876
qdhhcgbe -0.0016592588508501649 -0.010681968182325363 -0.00701209856197238 0.0055602616630494595 0.004255465231835842 -0.004943877458572388 -0.006163270678371191 0.007555398158729076 -0.004294989164918661 -8.055054931901395E-4 0.013729139231145382 -8.343741501448676E-5 -0.016824154183268547 0.0024774475023150444 0.013006499968469143 0.007669876329600811 -0.008353780023753643 -0.004815003369003534 0.005595516879111528 0.006936200428754091 -0.0021504804026335478 0.005458752624690533 -0.0037113837897777557 0.009592561051249504 0.006882590241730213 -0.0028806915506720543 -0.011906057596206665 -0.010411693714559078 -0.008877410553395748 -0.012314553372561932 0.002593332203105092 -0.010619810782372952 0.012892155908048153 -0.005325515288859606 -0.0026368109975010157 0.005836909636855125 0.007805781438946724 -0.017189940437674522 -0.008345339447259903 0.012123416177928448 -0.018424132838845253 0.0025606448762118816 0.01231023296713829 0.006996848154813051 -0.016807254403829575 -0.007848192006349564 -0.015615439973771572 -0.014388097450137138 0.01866685226559639 -0.009907892905175686 -0.00807176623493433 0.004254818893969059 0.0027184097561985254 0.01245485246181488 -0.001563834841363132 0.0016774307005107403 0.0031680907122790813 0.014045322313904762 0.006768504157662392 0.0032456605695188046 0.0020322559867054224 -0.002879247535020113 -0.007834656164050102 0.014574519358575344 -0.002110829809680581 0.015020983293652534 0.017402758821845055 0.007008881773799658 0.0023569115437567234 -0.010673636570572853 0.0063519603572785854 -0.0013061945792287588 -0.0016459282487630844 0.0014814455062150955 -0.01694585382938385 0.004534170031547546 -0.004350918345153332 0.018531305715441704 -0.001523494371213019 -0.008360203355550766 7.478916813852265E-5 0.0027399533428251743 0.009926280938088894 -0.007393904961645603 -0.005292216315865517 4.4354391866363585E-4 0.0025047429371625185 -0.014932706020772457 0.006513705477118492 -0.004016770515590906 -0.01119676511734724 -0.007914048619568348 -0.015679027885198593 0.008828704245388508 -7.282299920916557E-4 -0.005457271356135607 -0.002392251044511795 0.0016883566277101636 -0.003039091592654586 0.015561932697892189
qdiccggc 0.004618166014552116 0.0022527563851326704 0.0033901184797286987 0.004255366511642933 -0.0026900514494627714 0.003340720431879163 -4.657336976379156E-4 -0.001096464111469686 -0.0037370752543210983 -0.002583844121545553 -0.001224659732542932 0.003056146437302232 -0.0013730800710618496 -0.0014933696947991848 -0.004000027664005756 0.00267841387540102 0.0018434637458994985 -0.004376544617116451 -0.0033642572816461325 0.002633176976814866 0.0036785632837563753 -0.0029745912179350853 0.0040777577087283134 -0.004561779089272022 0.0014077818486839533 3.9003073470667005E-4 0.004948630463331938 -0.004697138909250498 0.0038818710017949343 0.0030884265433996916 -8.126884495140985E-5 0.004606270231306553 -0.004639448598027229 0.0022036873269826174 1.257270632777363E-4 -0.003726785071194172 -0.0030504947062581778 0.003223758889362216 0.0014166831970214844 -0.004710920620709658 5.575752002187073E-4 -0.003761186031624675 0.004454067908227444 1.9892632553819567E-4 -0.0037427630741149187 9.027445339597762E-4 0.003977551590651274 0.004359987564384937 0.001474723219871521 5.477023078128695E-4 -5.829542642459273E-4 0.0010709703201428056 0.002632303861901164 -0.0032102749682962894 0.0031582701485604048 0.002825770992785692 0.0017419946379959583 -0.00415867380797863 0.0032435632310807705 -9.702676325105131E-4 0.003854937618598342 0.0037346910685300827 8.054643985815346E-4 0.004781810566782951 -0.0010631054174154997 8.645736961625516E-4 0.0017088145250454545 0.0048394110053777695 -0.0030171091202646494 2.61730543570593E-4 1.2099027662770823E-4 -0.001505376072600484 -0.002885334426537156 -0.0026132601778954268 0.003100773086771369 0.0022453563287854195 -0.001015018206089735 0.004088271409273148 0.004768268670886755 -0.004257882945239544 -0.003744605230167508 -0.0011882638791576028 -0.0029560131952166557 -0.0028635107446461916 -0.004049227107316256 -0.004504689946770668 0.0015625894302502275 -0.004054448567330837 0.0038872635923326015 -0.001961801666766405 -0.0037788294721394777 -0.0030249899718910456 0.0018708253046497703 0.001993898767977953 2.581387816462666E-4 -0.0038515476044267416 0.0018745047273114324 0.0048437295481562614 0.0017678254516795278 -0.0018409371841698885
pgi 0.04150460660457611 -0.11441294103860855 -0.08966273069381714 0.05049929767847061 0.04596618935465813 -0.06537744402885437 -0.032102979719638824 0.09117879718542099 -0.0968407392501831 -0.025896314531564713 0.13081508874893188 -0.03153752163052559 -0.12114118039608002 0.05832459405064583 0.11649492383003235 0.09049837291240692 -0.06995988637208939 -0.0988464504480362 0.030729785561561584 0.03790612518787384 0.026008430868387222 0.10878758132457733 -0.05080358311533928 0.1197938397526741 0.04756312072277069 0.021640736609697342 -0.09530466049909592 -0.08256962150335312 -0.036130547523498535 -0.12694965302944183 0.014225821942090988 -0.04270504415035248 0.06739546358585358 -0.09074683487415314 -0.06857150793075562 0.0032078733202069998 0.0016464676009491086 -0.22434911131858826 -0.08146442472934723 0.10947508364915848 -0.09989015758037567 0.016405008733272552 0.06681835651397705 0.03440972790122032 -0.112679123878479 -0.11806736886501312 -0.09156312048435211 -0.16153457760810852 0.12938585877418518 -0.13361388444900513 -0.0021686337422579527 0.04653659835457802 0.033317577093839645 0.1127270758152008 -0.0032209488563239574 0.014822358265519142 0.018749050796031952 0.11250993609428406 0.0551675409078598 0.08476924896240234 0.020143015310168266 -0.04650525003671646 0.007793033961206675 0.1031174585223198 -0.016365572810173035 0.1626242697238922 0.21236731112003326 0.03263736516237259 -0.006251102313399315 -0.08758697658777237 0.038906749337911606 -0.03620043396949768 -0.01038119476288557 -7.022552308626473E-4 -0.13039933145046234 0.03906660154461861 -0.04070507362484932 0.16466239094734192 0.0408628024160862 -0.02626781538128853 0.007127344608306885 0.021235326305031776 0.02157055027782917 -0.05048708990216255 -0.0380064994096756 0.04916365444660187 0.005462057422846556 -0.08156346529722214 0.08986779302358627 0.035355255007743835 -0.08541397750377655 -0.027227012440562248 -0.07339892536401749 0.11310925334692001 -0.012974989600479603 -0.08899702876806259 -0.022580277174711227 0.049549397081136703 -0.026473170146346092 0.19531561434268951
qhaedfh 0.0021170745603740215 -0.006402007769793272 -0.006355294957756996 0.007518313359469175 0.0023912438191473484 -0.004152566660195589 -8.268459350802004E-4 0.002213696949183941 -0.0018849970074370503 -0.0020282401237636805 0.011907395906746387 -5.856639472767711E-4 -0.004399951547384262 7.317578420042992E-4 0.010055639781057835 0.008594145998358727 -0.004162952303886414 -0.005873412825167179 0.0038843173533678055 0.005997118074446917 -0.0033526162151247263 0.0021055047400295734 -0.005845349282026291 0.011580455116927624 0.0013715048553422093 -0.002886340953409672 -0.0022684151772409678 -0.006952762603759766 -0.006439634598791599 -0.007481729611754417 0.003894719760864973 -6.161208148114383E-4 0.009988543577492237 -0.0027616661973297596 -0.0022681625559926033 -0.0037227203138172626 -0.0018274489557370543 -0.017552664503455162 -0.008565946482121944 0.008463593199849129 -0.011271877214312553 0.0016896163579076529 0.0031909102108329535 0.0077492715790867805 -0.007387212011963129 -0.006802468094974756 -0.008559945039451122 -0.005547967739403248 0.014291929081082344 -0.002880530431866646 7.61541654355824E-4 0.003318443661555648 -1.9929299014620483E-4 0.012403436005115509 -0.0017613783711567521 0.0020504675339907408 0.005513360723853111 0.0148625448346138 0.008002599701285362 0.002974877832457423 -8.535900851711631E-4 -0.005291225388646126 -0.0021477635018527508 0.01220767479389906 -0.006295313127338886 0.0074222800321877 0.019293613731861115 -7.629801984876394E-4 0.002652325201779604 -0.0026492930483072996 0.004978792741894722 -0.0026774343568831682 -7.721017464064062E-4 -1.4958230894990265E-4 -0.008812975138425827 0.004923390224575996 -0.005524744279682636 0.007766315713524818 -0.0038388539105653763 -0.0015989469829946756 -0.0021268625278025866 0.00583474338054657 0.00636248430237174 4.745261394418776E-4 -0.002042519859969616 0.0018631609855219722 -0.0015242950757965446 -0.009017783217132092 0.006947432179003954 0.002431864384561777 -0.010123027488589287 -0.005895194597542286 -0.004649786744266748 0.007242910098284483 3.890609077643603E-4 8.543746662326157E-4 7.693445513723418E-5 -8.73936282005161E-4 -0.006777972914278507 0.013967888429760933
qiafebc -0.019674601033329964 -0.011649458669126034 0.03632307052612305 0.17612291872501373 0.015710391104221344 -0.0860832929611206 -0.1225738450884819 -0.030314497649669647 0.01420641876757145 -0.08890459686517715 0.017606578767299652 -0.0073394570499658585 0.10446913540363312 0.11061017215251923 0.09518507868051529 -0.026056643575429916 0.022507762536406517 -0.09119138866662979 0.08380891382694244 0.10393530875444412 -0.13852263987064362 -0.10502585768699646 -0.10692896693944931 0.19250385463237762 0.04679858684539795 -0.1012432798743248 -0.1507609784603119 0.07826045900583267 -0.12972745299339294 0.0070862602442502975 0.07157211005687714 -0.024846108630299568 0.13142648339271545 -0.06302427500486374 -0.004811349790543318 -0.023630261421203613 -0.041554342955350876 -0.034157123416662216 0.09728390723466873 -0.01663556881248951 -0.19550903141498566 -0.09883775562047958 0.18261240422725677 0.03452562913298607 0.03977622836828232 -0.018316220492124557 -0.012686244212090969 0.12520833313465118 0.3156638443470001 0.1065482348203659 -0.004486095160245895 -0.06658460199832916 -0.040833741426467896 0.08376799523830414 0.17758393287658691 0.028891902416944504 0.034343086183071136 0.24176280200481415 0.1484314501285553 0.06196380406618118 -0.03341801092028618 0.008836561813950539 -0.14218288660049438 0.13612499833106995 -0.1500643938779831 0.15272322297096252 0.20873013138771057 -0.15209560096263885 0.1534828543663025 0.045205771923065186 0.20036783814430237 -0.04724161699414253 0.09474579989910126 0.0016004861099645495 -0.058071572333574295 0.08417541533708572 0.08440351486206055 0.07734724134206772 -0.16270767152309418 -0.03410249575972557 -0.0903618112206459 0.07853461802005768 -0.03177759051322937 -0.11842681467533112 -0.12055016309022903 -0.008800201117992401 -0.14098578691482544 -0.11937563121318817 -1.8450140487402678E-4 0.09689588099718094 -0.04368145391345024 -0.0012896679108962417 -0.049765657633543015 0.11877462267875671 0.030300000682473183 0.07398802787065506 0.023583360016345978 -0.16614529490470886 0.06557802855968475 0.11848299950361252
qbfhhdiec 0.003374021966010332 -0.0019174949266016483 0.0034125768579542637 0.004140367731451988 0.003330317558720708 -0.003785019274801016 -0.006299551576375961 -2.75437836535275E-4 -0.0032747306395322084 -0.002887151436880231 0.001682037254795432 -0.004111927468329668 0.006543339695781469 0.0033475516829639673 0.0032234785612672567 -0.0039416165091097355 -0.0036025899462401867 -0.005157769657671452 0.0010466258972883224 0.0035181380808353424 -3.118686145171523E-4 -0.007528665475547314 -0.0020139124244451523 0.007187552750110626 0.0034198181238025427 -0.004530284553766251 -0.007971793413162231 0.005208337679505348 -0.007654717192053795 -0.006694397423416376 0.007276667281985283 -1.2464338215067983E-4 0.010566946119070053 -0.002526172436773777 -0.002472501015290618 -0.0043135653249919415 -0.0059030912816524506 -0.0026307939551770687 0.006067971233278513 1.4329970872495323E-4 -0.003918927162885666 -0.002586649265140295 -1.352432882413268E-4 0.001011872896924615 -0.006132278125733137 -0.002869319636374712 -0.0016764969332143664 -3.8379518082365394E-4 0.0066362787038087845 0.0018784005660563707 0.0030956589616835117 -0.006465260870754719 0.003661152208223939 2.497467212378979E-4 0.00574910081923008 0.0028543155640363693 0.0018224339000880718 0.00474864337593317 0.0023783708456903696 2.1266879048198462E-4 -4.4167489977553487E-4 0.0013217587256804109 0.002089779358357191 0.006337011232972145 -0.0024132903199642897 0.007814200595021248 0.003040794748812914 -9.135936852544546E-4 0.0066438112407922745 0.00361465523019433 0.0015897508710622787 -0.0015262443339452147 0.003765659173950553 -0.003254651790484786 5.549726192839444E-4 -0.003033071057870984 0.004483341239392757 6.390080088749528E-4 -0.002874099649488926 0.0038094480987638235 -0.0030460867565125227 0.005357438698410988 0.002702690428122878 -0.005470561794936657 0.0010831705294549465 2.335947210667655E-4 -0.003516022115945816 -0.00556755717843771 -0.004061327315866947 0.006625455804169178 -3.710694145411253E-4 -0.0012271846644580364 0.0012932741083204746 0.0029058358632028103 0.003601623233407736 -6.492502870969474E-4 0.004769331309944391 -0.008301367983222008 0.003910763654857874 0.005493626929819584
qciafgd -0.028206270188093185 -0.05471761152148247 0.10810571163892746 0.023612966760993004 0.08574260026216507 0.07766155153512955 -0.017536131665110588 0.08809209614992142 0.04470887780189514 0.06493856757879257 0.019582275301218033 0.03595481067895889 0.18604473769664764 0.1829984486103058 0.001172493677586317 0.08426518738269806 -0.02163727581501007 -0.08795668929815292 0.010487141087651253 0.09568336606025696 -0.028690025210380554 -0.18142148852348328 -0.17325827479362488 0.23639747500419617 0.07179487496614456 -0.07039882987737656 -0.17469383776187897 0.13490110635757446 -0.13245142996311188 -0.1216668039560318 0.10236271470785141 -0.015157995745539665 0.24443784356117249 -0.18156924843788147 -0.0014797140611335635 -0.05590517446398735 -0.0828293040394783 0.02369828149676323 0.16837386786937714 -0.0789121761918068 -0.11029418557882309 -0.11081723123788834 0.0738893672823906 0.015945328399538994 -0.10869883745908737 0.12035959213972092 0.009610321372747421 0.11719658970832825 0.32742005586624146 0.035588305443525314 -0.010741084814071655 -0.18223701417446136 0.020500121638178825 0.14538049697875977 0.10291288793087006 0.09378265589475632 0.13412611186504364 0.21737278997898102 0.07429299503564835 0.16534723341464996 0.0882730707526207 0.04381157085299492 -0.08212243765592575 0.21137447655200958 -0.1598653942346573 0.057674385607242584 0.30969125032424927 -0.08646687120199203 0.16923844814300537 0.08426909148693085 0.2698538601398468 -0.09760003536939621 0.16442221403121948 0.01909540593624115 0.05278247222304344 -0.10159549862146378 0.1771535575389862 0.08221504837274551 -0.1899666041135788 0.05782661586999893 -0.0705469623208046 -0.028019830584526062 -0.015119100920855999 -0.045832738280296326 -0.11872296035289764 -0.010131780058145523 -0.1536976397037506 -0.25136232376098633 -0.02529625967144966 0.05201352387666702 0.0708184689283371 0.01707186922430992 0.05749206244945526 0.07151832431554794 -0.034540675580501556 0.015048226341605186 0.18535225093364716 -0.19977857172489166 0.03382232040166855 0.07330485433340073
qbdcaacd -0.002401036210358143 -0.0067878710106015205 0.004644648637622595 8.443226106464863E-4 0.0052832732908427715 0.004063544794917107 -0.009602589532732964 0.001683002570644021 -0.0035748339723795652 -0.004006275441497564 0.0033800043165683746 -9.544292115606368E-4 0.0062723662704229355 0.004395837429910898 0.005675953347235918 -9.809979237616062E-4 -0.002080705948174 -0.005375383887439966 0.0012059089494869113 0.0073899077251553535 -0.008951285853981972 -0.008115210570394993 -0.007509896531701088 0.011309155263006687 0.004428110551089048 -0.00989091582596302 -0.00629380252212286 0.0024404653813689947 -0.009248455055058002 -0.0053339749574661255 0.003572798566892743 -4.656910023186356E-4 0.016675977036356926 -0.010897483676671982 -0.0056436071172356606 -2.8774881502613425E-4 -0.001755781820975244 2.3023542598821223E-4 0.01227349042892456 -3.194629680365324E-4 -0.001924674492329359 -0.0035461762454360723 0.004087511915713549 0.003965685144066811 -0.004999038763344288 -0.001019241870380938 -0.001800553291104734 0.007513408083468676 0.012375140562653542 0.001402587629854679 -0.004897750914096832 -0.010391847230494022 0.0033335781190544367 0.009887264110147953 0.0010338296415284276 0.003029444022104144 0.0035625153686851263 0.012663861736655235 0.009861449711024761 0.012110871262848377 0.001545275328680873 -0.0033898968249559402 -0.006586248520761728 0.012510235421359539 -0.0028339996933937073 0.0026338843163102865 0.012065623886883259 -0.00230794632807374 0.005298743024468422 -0.0035004462115466595 0.009048575535416603 -0.006914891768246889 0.011370407417416573 0.0030060424469411373 -6.503255572170019E-4 0.002792170038446784 0.009323813021183014 0.007130223326385021 -0.01086953841149807 0.0014619067078456283 0.0017023058608174324 -0.0027822174597531557 1.4583682059310377E-5 -0.0012460211291909218 -0.011496048420667648 -9.18666657526046E-4 -0.0094063775613904 -0.013427015393972397 0.0061122761107981205 0.010163595899939537 -0.004231730476021767 0.0029658859129995108 0.0021147180814296007 0.011242376640439034 -0.0024816866498440504 0.003961977083235979 0.0028432216495275497 -0.006779579445719719 -0.0018511968664824963 0.008805513381958008
qbhiibc -0.08303064852952957 0.1280711442232132 -0.039841216057538986 -0.09615614265203476 -0.07138980180025101 0.032069820910692215 0.1652449518442154 -0.12195055186748505 -0.07407669723033905 -0.010763504542410374 -0.14400088787078857 0.010974929668009281 0.011720596812665462 -0.1374901682138443 -0.15937559306621552 -0.08773702383041382 0.0812540128827095 0.09095204621553421 -0.06455980986356735 -0.11988558620214462 0.06948324292898178 -0.03586173057556152 0.08232684433460236 -0.19225002825260162 0.020599650219082832 0.07340118288993835 0.1966448724269867 0.021003935486078262 0.044491108506917953 0.16527937352657318 -0.0740380510687828 0.12683889269828796 -0.2529989182949066 0.109244704246521 0.1015993282198906 0.042922407388687134 0.13356448709964752 0.1404876857995987 -0.12006280571222305 -0.023902099579572678 0.18695677816867828 0.04329407215118408 -0.20027542114257812 -0.0305000189691782 0.09187183529138565 0.06351586431264877 0.07289454340934753 0.09071045368909836 -0.24291296303272247 0.11898994445800781 0.13689301908016205 0.023104101419448853 -0.049744732677936554 -0.15182092785835266 -0.07016719877719879 -0.0639946460723877 -0.07807227224111557 -0.20740768313407898 -0.09403374046087265 -0.16546796262264252 -0.028428032994270325 0.08128368854522705 0.045214056968688965 -0.10558871179819107 0.07263689488172531 -0.2823644280433655 -0.30096301436424255 0.06408412754535675 -0.017303673550486565 0.04521698132157326 -0.23234425485134125 0.13462592661380768 -0.16852563619613647 -0.05709380656480789 0.10640846937894821 -0.02235754020512104 -0.10632581263780594 -0.109511598944664 0.08790693432092667 0.006059399805963039 0.12211441993713379 -0.012589125894010067 0.034373458474874496 0.11733396351337433 0.10729958117008209 0.0027555320411920547 0.07427536696195602 0.1863410621881485 -0.0990322157740593 -0.10453725606203079 0.08342551440000534 0.009408459067344666 0.13840363919734955 -0.09025147557258606 0.04444531351327896 0.05281267687678337 -0.05641072615981102 0.12246684730052948 0.07704668492078781 -0.18923234939575195
qbhidbh -1.9326276378706098E-4 0.0011142031289637089 -0.0014348012628033757 -3.031037631444633E-4 0.003627781057730317 -5.25722629390657E-4 -0.0043512689881026745 0.005356418434530497 -0.004363345913589001 -0.003931550774723291 -0.0033773358445614576 6.543082417920232E-4 -5.79660467337817E-4 0.004628710448741913 -0.0012378417886793613 0.0033921157009899616 -0.003727120812982321 0.0015096990391612053 -7.021382916718721E-4 0.002737786155194044 -0.006474630907177925 -0.007089064456522465 -0.001441917847841978 7.077466580085456E-4 -0.001814929535612464 -0.0033923813607543707 -0.005852784961462021 -6.201426149345934E-4 -0.005365799646824598 0.001871599117293954 1.249443448614329E-4 2.230517566204071E-6 0.0027799205854535103 -0.004949032794684172 4.217576060909778E-4 -0.006600578315556049 -0.0025978893972933292 0.0016891385894268751 0.0041318307630717754 0.002955792238935828 -0.004972702357918024 -0.0038184495642781258 0.006560682784765959 -1.5669967979192734E-5 -0.0025790855288505554 -8.959644474089146E-4 -9.258934733225033E-5 9.351801127195358E-4 0.0031208544969558716 -2.1125018974998966E-5 0.0033591268584132195 -0.004202642012387514 -7.342263124883175E-4 0.00681809987872839 0.00347488303668797 0.005896297283470631 -0.0014750679256394506 0.00591245898976922 0.0035013589076697826 0.0033087613992393017 0.0020654788240790367 0.004109968431293964 -0.002795745152980089 0.003112082602456212 -4.791318788193166E-4 0.0023554558865725994 0.004043055698275566 -0.0028586676344275475 -0.001933381543494761 0.005449365358799696 5.988303455524147E-4 4.2281317291781306E-4 0.001382617512717843 0.0022434592247009277 -0.00419622054323554 -0.002813061000779271 9.8747992888093E-4 -0.0016582589596509933 -0.007471123710274696 0.0024206333328038454 7.80241098254919E-4 0.0045005884021520615 1.4277888112701476E-5 7.329312211368233E-6 -0.0032757779117673635 0.003164795460179448 -0.002359966281801462 -0.009333338588476181 2.1716392075177282E-4 0.006922761909663677 -0.002902936190366745 0.0033210557885468006 0.0032044812105596066 0.007932442240417004 -0.0019213218474760652 -0.0024521062150597572 -0.0013826002832502127 -0.0072646792978048325 -0.00363311474211514 0.009276093915104866
qbcheighh -0.0026873366441577673 -0.007622633129358292 0.0028080493211746216 0.0030396762304008007 0.005624766927212477 7.319268770515919E-4 -0.012483354657888412 0.004476407542824745 8.107636240310967E-4 -6.377689423970878E-4 -0.0027224384248256683 0.004700033459812403 0.015065769664943218 0.014237195253372192 0.011777148582041264 3.877540002577007E-4 0.004172901157289743 -0.005633258726447821 0.0057132490910589695 0.010565001517534256 -0.011370670050382614 -0.010285523720085621 -0.012279162183403969 0.020826146006584167 0.005025529768317938 -0.012080534361302853 -0.018512163311243057 0.005028141662478447 -0.008968915790319443 -0.0041504246182739735 0.007457238156348467 -0.005224139895290136 0.018317250534892082 -0.016045911237597466 -0.004623488988727331 -0.008744536899030209 -0.002617252990603447 -0.004252282902598381 0.010434336960315704 -0.002691004890948534 -0.010523101314902306 -0.014017783105373383 0.015620769932866096 0.0037418061401695013 -0.0075002103112638 0.002361430786550045 0.0035155501682311296 0.004277295432984829 0.031974565237760544 -0.002062359359115362 -6.38746889308095E-4 -0.009059109725058079 0.00521483737975359 0.005753527861088514 0.004516915418207645 0.011347949504852295 0.014844044111669064 0.014189720153808594 0.009603585116565228 0.01632772572338581 0.0017801843350753188 0.0034393053501844406 -0.0061292750760912895 0.015591492876410484 -0.009091762825846672 0.014202686958014965 0.022670138627290726 -0.014638425782322884 0.00891958549618721 -0.00243845721706748 0.02108834497630596 -0.00491495942696929 0.008569283410906792 -0.0014156396500766277 0.003601181088015437 -0.004673080053180456 0.005742302164435387 0.0037611303851008415 -0.014006762765347958 0.004646317567676306 -0.005091946572065353 7.42039002943784E-4 8.288483368232846E-4 -0.006672173738479614 -0.01359537709504366 -0.004036587197333574 -0.013494772836565971 -0.020466314628720284 -0.00214434415102005 0.005334226414561272 -0.004431854002177715 -0.004524313844740391 0.002279576612636447 0.010415533557534218 -0.0023369709961116314 0.0014811973087489605 0.01521671749651432 -0.010178280994296074 -0.0019744618330150843 0.012911123223602772
qfegd -0.0033996189013123512 -0.0030749025754630566 -0.01000246312469244 0.005509528331458569 0.001908690668642521 0.0015619159676134586 -6.118434830568731E-4 0.0031294478103518486 -0.006106805521994829 0.0015242935623973608 0.010028503835201263 0.0031796637922525406 -0.0050070565193891525 0.005911464337259531 0.008089553564786911 0.009939734824001789 -0.008397035300731659 -0.0065610227175056934 0.006016140338033438 0.006027799099683762 0.004040389321744442 -4.418604075908661E-4 -0.001936578657478094 0.005161802284419537 0.004284549504518509 -0.005372670479118824 -0.009656829759478569 7.084693061187863E-4 -0.0019232395570725203 -0.011529781855642796 0.005699723958969116 -0.0034792765509337187 0.007690015714615583 -0.008248904719948769 -0.006176688242703676 0.0048107365146279335 0.005026728380471468 -0.015080844983458519 -9.452811209484935E-4 0.006407501175999641 -0.015327919274568558 -8.215854177251458E-4 0.010486308485269547 0.0018475819379091263 -0.00416608527302742 -0.0026507782749831676 -0.010858599096536636 -0.005621825810521841 0.013543646782636642 -0.006712058559060097 -7.641422562301159E-4 0.004980285186320543 1.2349378084763885E-4 0.0038152309134602547 0.003810036927461624 0.006703601684421301 -5.283781210891902E-4 0.008781086653470993 0.0041911788284778595 0.008771712891757488 0.0011421237140893936 -0.001475484692491591 6.724053528159857E-4 0.011883803643286228 4.836715816054493E-4 0.012365581467747688 0.016880864277482033 4.5814516488462687E-4 0.001534306793473661 -0.001994025893509388 0.011445640586316586 -3.8651336217299104E-4 -0.0026679271832108498 -0.002814382780343294 -0.01152751874178648 0.004820053465664387 5.432604812085629E-4 0.007996049709618092 1.3567283167503774E-4 4.4168287422508E-4 -0.0015396373346447945 -2.3512217740062624E-4 4.947726847603917E-4 -0.002308238297700882 -0.0016346329357475042 -0.002919538877904415 -2.3668984067626297E-4 -0.00841575674712658 0.00533871678635478 0.0034076208248734474 -0.009890999644994736 -3.77868942450732E-4 -0.001952611724846065 0.004493122920393944 0.0038534647319465876 -0.0022681772243231535 -4.695146926678717E-4 -0.003445869078859687 0.002117413328960538 0.013859767466783524
pcgf 0.002810273552313447 -0.007940211333334446 0.0024605225771665573 0.0018746391870081425 0.004145594779402018 -6.478847353719175E-4 -0.005983275361359119 0.0019476971356198192 0.0011073851492255926 -5.825089756399393E-4 0.002837223233655095 -0.0038743012119084597 0.0012057486455887556 0.0024765110574662685 0.0015061806188896298 0.004845160525292158 0.001075872452929616 -0.00484192930161953 -0.00280246720649302 0.007489709183573723 -0.004958339501172304 0.0028569975402206182 -0.009033121168613434 0.01164040807634592 0.0035267777275294065 0.0028844864573329687 -0.008944548666477203 -0.0033786764834076166 -0.0015506045892834663 -3.4020497696474195E-4 0.004826429300010204 -0.004656855016946793 0.005189619492739439 -0.002684656297788024 -1.1764575901906937E-4 3.035468398593366E-4 -0.0026872719172388315 -0.007663032505661249 0.0033777542412281036 -0.0020941938273608685 -0.009363546036183834 0.002995637711137533 0.008243477903306484 0.005259558092802763 -0.006812514271587133 -0.005132058635354042 4.732506349682808E-4 0.001230183755978942 0.008833524771034718 -0.005419681780040264 -0.005878890864551067 -0.0011977781541645527 -0.0035795087460428476 0.004156214650720358 1.9652863556984812E-4 0.00601956807076931 0.0024631915148347616 0.00988227128982544 0.0032170587219297886 -2.1413317881524563E-5 -3.255605697631836E-4 -4.8370365402661264E-4 -5.465765716508031E-4 0.008902022615075111 -1.8911712686531246E-4 0.009216247126460075 0.016004424542188644 -0.0016053461004048586 0.00815278198570013 -0.005546483676880598 0.005122796166688204 -0.005046854726970196 -0.0019580961670726538 0.001678197062574327 -0.004171272739768028 0.004457545001059771 0.002683287486433983 0.008101334795355797 -0.00336874695494771 5.453163757920265E-4 -0.0031044434290379286 -0.0036221311893314123 -0.001969478093087673 -0.0027642997447401285 -0.0013071127468720078 0.001816387171857059 -0.007380418945103884 -0.005035624839365482 -0.0017080043908208609 -0.0027983211912214756 -0.003949053585529327 0.0018678135238587856 -0.006363104563206434 0.007392526604235172 -2.0676665371865965E-5 0.0032241407316178083 0.004623734392225742 7.56506051402539E-5 -7.187976152636111E-4 0.008995454758405685
qbde -0.03285364806652069 0.14561188220977783 0.0263071209192276 -0.07347069680690765 -0.08179216086864471 0.02269921638071537 0.1514405459165573 -0.09596866369247437 -0.06133388355374336 -0.0031585705000907183 -0.13951890170574188 -0.028293617069721222 0.00680010998621583 -0.07731086015701294 -0.11365370452404022 -0.08812452852725983 0.05075627937912941 0.03906878083944321 -0.0401315838098526 -0.15241217613220215 0.09270572662353516 -0.05314180627465248 0.08326559513807297 -0.16677597165107727 -0.03639616072177887 0.09575249254703522 0.2187008261680603 0.040511488914489746 0.08510399609804153 0.15531189739704132 -0.09283202886581421 0.13024358451366425 -0.24769967794418335 0.16237936913967133 0.07341258227825165 0.0475495308637619 0.12216436117887497 0.18164074420928955 -0.06891148537397385 0.013842619024217129 0.21096263825893402 0.0697421133518219 -0.20429794490337372 -0.011559279635548592 0.05349038168787956 0.08303306251764297 0.0969143807888031 0.09344653785228729 -0.22022639214992523 0.07358668744564056 0.12863603234291077 0.06517541408538818 -0.05295783281326294 -0.10000718384981155 -0.03562787175178528 -0.07764653116464615 -0.08428263664245605 -0.26199620962142944 -0.11490403115749359 -0.17710639536380768 -0.05196324735879898 0.06497310847043991 0.013314434327185154 -0.13955113291740417 0.11133234202861786 -0.29009315371513367 -0.3239082396030426 0.004425833933055401 -0.029441893100738525 0.04716290161013603 -0.20519347488880157 0.15636120736598969 -0.16699647903442383 -0.03651515394449234 0.11136676371097565 0.03290114924311638 -0.09093848615884781 -0.15093472599983215 0.10663694143295288 0.007957052439451218 0.12084882706403732 -0.05098186060786247 0.08102425187826157 0.11421725898981094 0.06808698177337646 -0.026512719690799713 0.05209409445524216 0.1570906639099121 -0.06324280053377151 -0.11229818314313889 0.043712910264730453 0.048408929258584976 0.1305413693189621 -0.14857344329357147 0.0019406485371291637 0.015916451811790466 -0.08180790394544601 0.09459365159273148 0.061028942465782166 -0.20006537437438965
peeb 0.002694134833291173 4.7781504690647125E-5 0.0015491921221837401 0.00630598608404398 0.0016900328919291496 0.003704886185005307 -0.006989102810621262 0.0037484364584088326 0.002233936684206128 -0.003697487758472562 -0.0014700854662805796 -0.0016197371296584606 0.004714724607765675 0.007443155627697706 9.352490305900574E-4 5.203671171329916E-4 9.404047159478068E-4 -0.007304581813514233 0.005308622028678656 -7.817661389708519E-4 -0.0057978397235274315 -0.0076057640835642815 -0.0024444088339805603 0.012983724474906921 0.0069231814704835415 -0.0028600527439266443 -0.0033101276494562626 -0.0012323693372309208 -1.8447657930664718E-4 -0.004203863441944122 0.004728976637125015 0.003603330347687006 0.004215694963932037 -0.006581577006727457 -8.935745572671294E-4 0.0011855426710098982 -0.004125518258661032 -0.005170678254216909 0.004885533824563026 -0.0021027966868132353 -0.00488278130069375 -0.006555069237947464 0.0057841334491968155 5.090772174298763E-4 -0.0023527119774371386 0.0031439606100320816 0.003950763493776321 0.006858804728835821 0.01190478727221489 0.0010266475146636367 0.0014087382005527616 -0.0013100884389132261 -4.0637230267748237E-4 0.0038957574870437384 5.411067395471036E-4 0.003405599622055888 0.0072324820794165134 0.010954172350466251 0.007553539704531431 0.0063657923601567745 0.0030373656190931797 0.0014655555132776499 -0.0072691477835178375 0.004150186665356159 -0.005126474890857935 0.005490703973919153 0.009472074918448925 -0.006848958320915699 0.010044497437775135 -1.6211133333854377E-4 0.011936062946915627 -0.0034639043733477592 0.006151369772851467 0.003807086730375886 1.081675582099706E-4 -0.0017015163321048021 0.007012070622295141 0.006824672222137451 -0.0022890339605510235 -7.012636633589864E-4 -0.0015183397335931659 0.0025677881203591824 2.6290403911843896E-4 9.910480002872646E-6 -0.003835078561678529 -4.2810000013560057E-4 -0.007757225073873997 -0.010186541825532913 -8.500086842104793E-4 0.005105594173073769 0.003733673132956028 0.004167179577052593 -0.004561759065836668 0.002835199935361743 -0.0018762783147394657 0.004825293552130461 0.008077945560216904 -0.010033778846263885 0.002928340807557106 0.007534503471106291
pdcb -0.0028921538032591343 -0.009756345301866531 -0.0010413848794996738 0.005273288115859032 -0.001354769803583622 -7.261993014253676E-4 -0.005724727641791105 0.0030031492933630943 -0.0033251307904720306 -7.477639010176063E-4 0.009484357200562954 -0.0016175485216081142 -0.009603651240468025 0.001934935338795185 0.005345480050891638 0.008352587930858135 -5.218734731897712E-4 -0.010534059256315231 0.007335156202316284 0.0040122088976204395 0.0034405686892569065 0.005360287148505449 -0.004686685279011726 0.014198803342878819 -0.002012218814343214 -0.005357987713068724 -0.006800550036132336 0.0010606616269797087 -0.001393618993461132 -0.010476791299879551 0.007987159304320812 -0.0012148716486990452 0.005261274054646492 -0.005329844541847706 -0.006276114843785763 -0.004413058515638113 -0.002104932675138116 -0.01715718023478985 -0.002167483326047659 0.0038469601422548294 -0.0058508641086518764 0.0033834015484899282 0.010676143690943718 8.325180970132351E-4 -0.0021797851659357548 -0.005142230074852705 -0.010065686888992786 -0.011554131284356117 0.007106639910489321 -0.009202959015965462 -0.005653567146509886 0.0018502818420529366 0.006277064792811871 0.003069833153858781 9.868472989182919E-5 0.004717202857136726 0.005039073992520571 0.009646688587963581 0.004499887116253376 0.0014077620580792427 3.190423012711108E-5 3.097295411862433E-4 0.0022597028873860836 0.009971815161406994 -0.004749070852994919 0.00708224531263113 0.017066791653633118 0.006619215942919254 0.007051017135381699 -0.008260821923613548 0.002669201698154211 -0.0056568654254078865 0.001753013813868165 -0.005055395420640707 -0.003895261324942112 -0.0033598775044083595 -0.004197222646325827 0.008747974410653114 -0.003004169324412942 0.0015550623647868633 -8.172623929567635E-4 -6.137506570667028E-4 0.0026525352150201797 -0.00710104638710618 -0.0019096474861726165 -0.0028006776701658964 -0.005157124251127243 -0.01200370118021965 0.00914800725877285 0.0022317159455269575 -0.010267423465847969 -0.008052712306380272 -0.008282037451863289 0.01001103688031435 0.0039819953963160515 -0.004950795788317919 -0.006123180966824293 0.00434116879478097 4.421174235176295E-4 0.013484831899404526
qbgghadce 0.002582977060228586 -0.006977697368711233 9.706937125883996E-4 0.002438313327729702 -0.0014649401418864727 -0.002840730594471097 -0.00478699104860425 0.003235215088352561 0.002159916330128908 -0.003647378645837307 0.004384033381938934 -9.687246638350189E-4 -0.002535260980948806 0.002487095072865486 0.0039858161471784115 0.002981725614517927 -0.0010374162811785936 -0.0061511024832725525 -0.0011785393580794334 0.005036229267716408 0.003595517948269844 -0.0014920169487595558 -0.006353622768074274 0.008402464911341667 0.004768876824527979 -0.0029390244744718075 -7.197014638222754E-4 0.0017960421973839402 4.465457459446043E-4 -0.004631390329450369 0.0020280235912650824 -0.002762468531727791 0.0037110396660864353 -0.0031565113458782434 0.0031086583621799946 0.003946229349821806 0.002361022401601076 -0.006852600257843733 0.002376662101596594 0.003399444045498967 -0.00541007611900568 -0.0043099140748381615 0.007297324016690254 -0.0038850123528391123 -0.006748586427420378 -0.002212685067206621 -0.0032959741074591875 -0.003910647239536047 0.0019423426128923893 3.5703222965821624E-4 -0.004532109014689922 -0.0012213813606649637 0.003053880063816905 0.005345312412828207 -0.0019165532430633903 6.287488213274628E-5 0.003036471316590905 0.006339268758893013 0.0040193647146224976 0.001965715317055583 -0.0023951251059770584 2.1873528021387756E-4 -7.669439655728638E-4 0.0070343343541026115 0.003017687937244773 3.774662036448717E-4 0.007507247384637594 0.005267356056720018 -0.0016210168832913041 7.276354590430856E-4 0.0023151703644543886 6.85697013977915E-4 -9.742207475937903E-4 0.0021186780650168657 -0.005332185886800289 -0.001714326092042029 -0.001704992027953267 0.0022841528989374638 -0.0026279191952198744 -0.004808871075510979 0.0027643193025141954 -4.649996990337968E-4 0.0017671381356194615 -0.0021726805716753006 0.003959518391638994 0.00198661582544446 -3.663251409307122E-4 -0.002690480090677738 0.004142570775002241 -0.0015989684034138918 -0.005018900148570538 6.730930181220174E-6 0.0023417556658387184 0.002611509058624506 0.0037420073058456182 4.4088612776249647E-4 -0.0025908646639436483 -0.0037503624334931374 0.0013452753191813827 0.008682392537593842
qbagcibdc 0.0016850968822836876 -0.00513077387586236 -1.2331531615927815E-4 0.0010136539349332452 -0.003547730389982462 -0.006214919965714216 -0.006029781885445118 -0.0014904646668583155 -0.001002471661195159 4.2230181861668825E-5 0.010246641002595425 0.004412156064063311 -7.032733992673457E-4 0.0037703420966863632 0.0013278108090162277 0.0036571435630321503 -0.0021968979854136705 -0.005128111690282822 -0.0023230796214193106 0.0069059631787240505 0.0010453693103045225 8.002151153050363E-4 -0.004411961417645216 0.008142338134348392 0.006009185686707497 -0.0021745460107922554 -0.008684988133609295 -0.003232122166082263 -0.001076503423973918 -0.007345153018832207 0.003402839647606015 -0.0045721339993178844 0.006392891518771648 2.527092583477497E-4 -0.0022216637153178453 -0.003381044138222933 -0.001636480912566185 -0.0085578178986907 -0.007230004295706749 0.008640684187412262 -0.0052338577806949615 0.004843624774366617 0.0034251795150339603 0.0028710816986858845 -0.009609886445105076 -0.00567949702963233 -0.007243598345667124 -0.001569247106090188 0.006654937285929918 -0.0017677211435511708 -6.54003000818193E-4 -0.0015083872713148594 -0.002038628561422229 0.004794953390955925 -0.002847189549356699 -0.0023183408193290234 0.004533515311777592 0.009219265542924404 9.521295432932675E-4 0.00650400435552001 5.250013782642782E-4 3.5563294659368694E-4 -0.004547090269625187 0.003653205931186676 -0.004936624318361282 0.0053466130048036575 0.011293256655335426 0.0060479892417788506 0.004892548080533743 -0.007549883332103491 0.004034734331071377 0.0026365576777607203 -0.003417729865759611 -0.0061248126439750195 -5.185767076909542E-4 -0.0033264332450926304 -0.004695012699812651 0.011084537953138351 0.0037211247254163027 -0.005333168897777796 9.139375761151314E-4 0.003654567524790764 0.006155826151371002 0.001436239224858582 0.002342723775655031 -0.0027051453944295645 -0.0014263130724430084 -0.0026148122269660234 0.006289515644311905 -0.0036642381455749273 -0.006689260248094797 -0.004884009715169668 -0.0023411742877215147 0.00691355811432004 0.0013548601418733597 0.002000031992793083 -1.9017807790078223E-4 0.004861076362431049 -0.0041666459292173386 0.012786769308149815
qfhhbdiha -0.015828067436814308 0.016582516953349113 -0.011137456633150578 -0.010789452120661736 -0.013080738484859467 2.1503121388377622E-5 0.02424081787467003 -0.015952760353684425 -0.017915107309818268 0.001565063837915659 -0.019603578373789787 0.004345752764493227 -0.005219164304435253 -0.021148627623915672 -0.02151384949684143 -0.008756929077208042 0.009875629097223282 0.014758464880287647 -0.005538018420338631 -0.02164396457374096 0.010529255494475365 0.0072714947164058685 0.015473405830562115 -0.023789871484041214 0.004969630856066942 0.010704677551984787 0.031430430710315704 0.0016243575373664498 0.008038823492825031 0.02308814600110054 -0.01283637061715126 0.014498231001198292 -0.03276488557457924 0.012144718319177628 0.009155974723398685 0.009038183838129044 0.02141706272959709 0.008505448698997498 -0.02771681174635887 -0.0020768893882632256 0.022953037172555923 0.01113614346832037 -0.026429301127791405 -0.0050569381564855576 0.005864783655852079 -2.926518500316888E-4 0.006819952744990587 -6.691222661174834E-4 -0.037507470697164536 0.010097337886691093 0.02056245133280754 0.006282482761889696 -0.010238847695291042 -0.02147633209824562 -0.01939399167895317 -0.005959780886769295 -0.015971435233950615 -0.028433742001652718 -0.010628539137542248 -0.019192831590771675 -4.988066502846777E-4 0.009865744970738888 0.00931459479033947 -0.014915697276592255 0.014091023243963718 -0.03189968317747116 -0.0449201799929142 0.015969233587384224 -0.0046688285656273365 0.0029353194404393435 -0.03928126022219658 0.01751585118472576 -0.025070352479815483 -0.013956112787127495 0.014225423336029053 0.0025601950474083424 -0.018195999786257744 -0.016126057133078575 0.013742788694798946 -0.002752382541075349 0.022654656320810318 -0.006582451052963734 0.008909187279641628 0.01718156412243843 0.01561320386826992 0.0036418272648006678 0.012863759882748127 0.02801240235567093 -0.012255632318556309 -0.01480198372155428 0.011585516855120659 -7.930147694423795E-4 0.016511501744389534 -0.011824623681604862 0.010540607385337353 0.007594043854624033 -0.008857982233166695 0.02616211399435997 0.003023288445547223 -0.02090432681143284
pgiei -0.0362732969224453 0.04881070926785469 -0.03287901729345322 -0.06432560086250305 -0.0965428352355957 0.051818884909152985 0.07215175032615662 -0.03492150083184242 0.0010107489069923759 -0.023021835833787918 -0.029063981026411057 -0.03748336806893349 0.03348638117313385 -0.08449139446020126 -0.11718107014894485 -0.08874333649873734 0.044259823858737946 0.0814867839217186 -0.05098993331193924 -0.10137572139501572 0.01846347004175186 0.045388177037239075 0.04103153571486473 -0.18885661661624908 9.389461483806372E-4 0.06893465667963028 0.1257481575012207 0.039852626621723175 0.09627866744995117 0.057505395263433456 -0.03639304265379906 0.06564981490373611 -0.1918058842420578 0.1162603422999382 0.027058297768235207 0.002089811023324728 0.04574236646294594 0.1281430572271347 -0.05675862357020378 0.003024812787771225 0.16991877555847168 0.0793776884675026 -0.11343302577733994 -0.05431418493390083 0.10387342423200607 0.031737517565488815 0.10318607836961746 0.039574865251779556 -0.21741455793380737 0.09490153938531876 0.003307732054963708 0.026370812207460403 -0.04032973572611809 -0.11013548076152802 -0.07547421008348465 -0.08810396492481232 -0.06935755163431168 -0.21026869118213654 -0.10545315593481064 -0.09807658195495605 0.012019231915473938 0.013228530995547771 0.08713244646787643 -0.13252656161785126 0.07732976227998734 -0.19685550034046173 -0.23180469870567322 0.015115861780941486 -0.05578494071960449 0.015781715512275696 -0.12060070037841797 0.09570124745368958 -0.04744900390505791 0.012930849567055702 0.021495942026376724 -0.030660759657621384 -0.021795449778437614 -0.12422537803649902 0.11236023902893066 0.013548348098993301 0.034746281802654266 0.007555946242064238 0.02622252143919468 0.03486596792936325 0.05865393951535225 -0.03180946037173271 0.08070559799671173 0.08597645163536072 -0.07929261773824692 -0.08683647960424423 0.01983516663312912 0.04396293684840202 0.08215522766113281 -0.09736579656600952 0.027154820039868355 -0.01704307645559311 -0.05900496244430542 0.10596582293510437 0.048722319304943085 -0.15710856020450592
qeacece -0.026672402396798134 -0.019583025947213173 0.01452977117151022 0.17669491469860077 0.03245866671204567 -0.06808165460824966 -0.1366450935602188 -0.021896960213780403 0.014362527057528496 -0.0760590136051178 0.03985773026943207 -0.01604960300028324 0.09744561463594437 0.13139961659908295 0.09270326793193817 -0.003070940962061286 0.013746184296905994 -0.10879576951265335 0.05941469222307205 0.09928232431411743 -0.14792992174625397 -0.10558981448411942 -0.10186345875263214 0.20453742146492004 0.029629511758685112 -0.11441093683242798 -0.12456560134887695 0.047781117260456085 -0.10070041567087173 -0.01661904901266098 0.043528832495212555 -0.03885423392057419 0.11754556745290756 -0.07149951905012131 0.011758974753320217 0.003208339912816882 -0.03623225539922714 -0.03291246294975281 0.12403469532728195 0.016136180609464645 -0.18670932948589325 -0.11218796670436859 0.2091231346130371 0.058500271290540695 0.05597659945487976 -0.005727171432226896 0.019828064367175102 0.11759788542985916 0.3246670961380005 0.09705909341573715 0.021891383454203606 -0.07711106538772583 -0.026933129876852036 0.06039188429713249 0.16967974603176117 0.013636023737490177 0.019131911918520927 0.24771536886692047 0.12841883301734924 0.051692891865968704 -0.059993892908096313 0.030201949179172516 -0.12718439102172852 0.11284390836954117 -0.13401535153388977 0.17195110023021698 0.20681345462799072 -0.14758725464344025 0.15441259741783142 0.029662903398275375 0.20382878184318542 -0.04915819317102432 0.06861721724271774 0.007827628403902054 -0.06374429911375046 0.07866822183132172 0.1205543652176857 0.05305289104580879 -0.19101153314113617 -0.050147175788879395 -0.06454674154520035 0.05189185217022896 -0.03868323192000389 -0.12762022018432617 -0.10344632714986801 -0.02165621519088745 -0.14236293733119965 -0.11121027916669846 0.02259625308215618 0.10027547180652618 -0.025187509134411812 0.03392932564020157 -0.043364688754081726 0.1275927871465683 0.0331382192671299 0.07971411198377609 0.009667785838246346 -0.15036700665950775 0.045598629862070084 0.11145084351301193
qhecbia 0.015834566205739975 -0.026724860072135925 0.031096525490283966 0.043685182929039 0.054336708039045334 0.030314305797219276 -0.07327281683683395 0.02980717457830906 0.0010133838513866067 -0.02478792332112789 -0.02048409916460514 0.0043223281390964985 0.1601754128932953 0.12694886326789856 0.0631759986281395 -0.007165607996284962 0.004749994724988937 -0.036611396819353104 0.0025160012301057577 0.05805255100131035 -0.08892682939767838 -0.1529843807220459 -0.12378448992967606 0.1667819768190384 0.07868385314941406 -0.08537786453962326 -0.18424266576766968 0.08468655496835709 -0.08561697602272034 -0.03254689648747444 0.08453565090894699 -0.03048069216310978 0.2140844613313675 -0.14177767932415009 -0.04137770086526871 -0.06962281465530396 -0.08796167373657227 -0.012848194688558578 0.13736142218112946 -0.04334098845720291 -0.06196166202425957 -0.0971260741353035 0.11476408690214157 0.05900389701128006 -0.052012521773576736 0.0699077770113945 0.017003316432237625 0.06697848439216614 0.266363263130188 -0.0039294068701565266 -0.02146201953291893 -0.13835321366786957 0.04188409820199013 0.07793490588665009 0.06824442744255066 0.0934201031923294 0.1064508855342865 0.1472713202238083 0.10006113350391388 0.1423690766096115 0.07573844492435455 0.01354224979877472 -0.06715822964906693 0.18666987121105194 -0.09932447224855423 0.0862678587436676 0.20085102319717407 -0.11881779134273529 0.1002664789557457 0.04094374552369118 0.17320123314857483 -0.10658550262451172 0.13372525572776794 -0.035603880882263184 0.051284655928611755 -0.05054013803601265 0.10141554474830627 0.012431886978447437 -0.17287960648536682 0.019955545663833618 -0.02809545397758484 0.015407847240567207 -0.018171269446611404 -8.463115082122386E-4 -0.13049684464931488 -0.010973908938467503 -0.07664553821086884 -0.1937459260225296 0.010795805603265762 0.10178785771131516 0.03100922517478466 -0.00690794549882412 0.032121315598487854 0.10257267951965332 -0.02596762217581272 0.029681500047445297 0.13337644934654236 -0.13638795912265778 -0.0069433837197721004 0.13682708144187927
pbb 0.04242842271924019 0.01258052233606577 0.10559143126010895 -0.04891601949930191 0.029818154871463776 0.04908251389861107 0.039422109723091125 0.030341757461428642 0.13325203955173492 0.12052872031927109 -0.05074768140912056 0.03329934552311897 0.0015956233255565166 -0.09777754545211792 -0.09465141594409943 0.022780247032642365 0.027636121958494186 0.10487833619117737 -0.046196673065423965 -0.009345988743007183 -0.007068153005093336 0.03220537677407265 0.12641075253486633 -0.1439569741487503 -0.08237262815237045 -0.009278749115765095 0.07215222716331482 -0.01565784588456154 0.09088987112045288 0.012985510751605034 -0.032301004976034164 0.011256081983447075 0.01838831789791584 0.055534765124320984 0.004799314308911562 0.02210676297545433 -0.09499866515398026 0.11201558262109756 0.06189365312457085 -0.08562830835580826 0.08069934695959091 -0.04382709041237831 -0.0762990191578865 -0.052020225673913956 0.037577517330646515 0.04925241693854332 0.00996670313179493 0.0016064036171883345 -0.20568613708019257 -0.04462599754333496 -0.04135555028915405 -5.995943211019039E-4 0.007472672965377569 -0.046452876180410385 -0.038137003779411316 0.042634230107069016 -0.03336845338344574 -0.09740894287824631 -0.06206631287932396 -0.02102017216384411 0.014453825540840626 0.002786713419482112 0.058285485953092575 -0.15794819593429565 0.04382772371172905 -0.021606549620628357 -0.14417971670627594 0.01208957564085722 -0.09811269491910934 0.0537802129983902 -0.03871265426278114 -0.021729782223701477 0.05329706892371178 0.060217421501874924 0.07897818088531494 -0.05747457966208458 0.05823109298944473 -0.1125212088227272 0.04165017604827881 0.06456727534532547 -0.05277322232723236 -0.05017203092575073 -0.07000087201595306 0.051912080496549606 0.036465588957071304 -0.012202234007418156 0.014978647232055664 0.1334831267595291 -0.052160974591970444 0.013496030122041702 0.06708906590938568 0.016910234466195107 -0.020528288558125496 -0.10370691120624542 0.0012463901657611132 0.0014370837016031146 0.05984696000814438 -0.009919659234583378 -0.052405424416065216 -0.1413256824016571
pdg 0.0037990135606378317 0.0011646279599517584 0.005956986919045448 0.0077706570737063885 9.700370719656348E-4 0.00532198790460825 -0.0024783280678093433 0.0015353799099102616 0.006126854568719864 -0.0015335985226556659 0.004388704430311918 -0.0016004840144887567 0.006397444289177656 0.005618241615593433 -0.0015010192291811109 7.207709713838995E-4 -0.0011262263869866729 -0.006114002782851458 -0.001703418674878776 -1.7556012608110905E-6 -0.0017420812509953976 -0.009312835521996021 -0.006349717732518911 0.01223949808627367 -0.0012353187194094062 -0.006463681813329458 -0.009295748546719551 -0.00145378103479743 -0.008293282240629196 -0.0016127716517075896 6.615999154746532E-4 5.489136092364788E-4 0.009933819063007832 -0.004962417762726545 -3.8419419433921576E-4 0.0015427048783749342 -0.003058526897802949 9.66890249401331E-4 0.009420531801879406 0.001444252789951861 -0.0030483705922961235 -0.008274547755718231 0.009996598586440086 0.004325733985751867 -1.357811997877434E-4 0.005850961897522211 -9.839065605774522E-4 8.992382208816707E-4 0.008164779283106327 -0.0034272654447704554 0.003102270420640707 -0.009756551124155521 0.004582326393574476 0.008178668096661568 0.003557301824912429 0.007507207337766886 0.009023687802255154 0.008900268003344536 0.002064033877104521 0.009646027348935604 0.0016951966099441051 -0.0022981828078627586 -0.001990293152630329 0.003943333867937326 -0.0017560847336426377 0.008122238330543041 0.014997290447354317 -1.5733370673842728E-4 0.006453687325119972 0.0015395533991977572 0.008382136933505535 -9.323462145403028E-4 0.0018567987717688084 0.004660369828343391 0.004390979651361704 -0.002683395054191351 0.010230191983282566 0.004012598656117916 -0.007431994192302227 0.003909040242433548 0.0019468890968710184 0.002605621237307787 0.002639938145875931 -0.002919665537774563 -0.00525885634124279 0.0013350753579288721 -0.0012550529791042209 -0.011572561226785183 -3.1251227483153343E-4 -0.001462262705899775 6.817124667577446E-4 0.002481914358213544 0.005089729558676481 5.660044844262302E-4 -0.005540482699871063 0.003998545929789543 0.0021881202701479197 -0.0023217196576297283 -2.3802113719284534E-4 0.006100696511566639
pb 0.014234527945518494 -0.19273264706134796 -0.17286540567874908 0.02591576799750328 0.05390002951025963 -0.04605332389473915 -0.10180622339248657 0.09984060376882553 -0.16600430011749268 -0.07803119719028473 0.21778863668441772 -0.008054165169596672 -0.24116508662700653 0.05061088874936104 0.21759721636772156 0.17566324770450592 -0.14141960442066193 -0.13043814897537231 0.06251003593206406 0.0933680310845375 0.0627119392156601 0.19544263184070587 -0.09897194802761078 0.19427941739559174 0.0576355941593647 0.008499285206198692 -0.1252061128616333 -0.1411566287279129 -0.07723065465688705 -0.1988590955734253 0.051276661455631256 -0.13229309022426605 0.10286776721477509 -0.12777377665042877 -0.0648636743426323 0.030096465721726418 0.08681982010602951 -0.3654945194721222 -0.19065335392951965 0.1890660673379898 -0.22837144136428833 0.09081744402647018 0.12493571639060974 0.05733640864491463 -0.20646806061267853 -0.19554637372493744 -0.1914864033460617 -0.319159597158432 0.19735464453697205 -0.21899399161338806 -0.06743396818637848 0.1532658338546753 0.041873715817928314 0.1707599014043808 -0.09255535155534744 0.024862896651029587 0.05874049663543701 0.19702120125293732 0.06563962996006012 0.05868078023195267 0.03167656064033508 -0.0913492888212204 -0.036226071417331696 0.17969025671482086 0.016657480970025063 0.2904154360294342 0.3293687105178833 0.1334054321050644 0.02162308245897293 -0.21064183115959167 0.09091472625732422 -0.062192827463150024 -0.04103793203830719 -0.05434730648994446 -0.24051006138324738 0.0430179126560688 -0.12506569921970367 0.28330445289611816 0.0889383926987648 -0.09836169332265854 0.03060789220035076 -0.005472855176776648 0.0912596732378006 -0.05968550220131874 5.100403795950115E-4 0.028276236727833748 0.03030453622341156 -0.16384275257587433 0.18314950168132782 -0.012925923801958561 -0.17198584973812103 -0.10400669276714325 -0.17661723494529724 0.17190764844417572 0.0032560627441853285 -0.12896421551704407 -0.11128614097833633 0.0844278410077095 -0.07883433252573013 0.2996675670146942
qbbddf 0.00537757808342576 -0.02243950590491295 0.015199868939816952 0.04360571876168251 0.03542567417025566 0.016210857778787613 -0.052575547248125076 0.020155223086476326 0.004842928145080805 -0.020215434953570366 -0.0109984977170825 -0.0027846982702612877 0.1164381131529808 0.09968965500593185 0.04786080867052078 -7.647986640222371E-4 -3.2492438913322985E-4 -0.03219861909747124 0.0019078407203778625 0.05103185027837753 -0.06852887570858002 -0.11159149557352066 -0.08898887783288956 0.13092221319675446 0.054819073528051376 -0.0658782422542572 -0.13738839328289032 0.05639416724443436 -0.06810364127159119 -0.029182907193899155 0.061281539499759674 -0.029338151216506958 0.1573696732521057 -0.10617397725582123 -0.03269857540726662 -0.04646392539143562 -0.061739444732666016 -0.012587223201990128 0.0997331514954567 -0.025765227153897285 -0.04833949729800224 -0.07253160327672958 0.08403807878494263 0.041937604546546936 -0.03722281754016876 0.043317992240190506 0.013201742433011532 0.05154285952448845 0.19705712795257568 -0.004190692212432623 -0.01787509396672249 -0.1006217896938324 0.0299457348883152 0.0632474273443222 0.057242501527071 0.06649456173181534 0.08164072781801224 0.11128813028335571 0.07535688579082489 0.1009591594338417 0.0560188964009285 0.010121412575244904 -0.05853048339486122 0.1387300044298172 -0.07086414098739624 0.06522045284509659 0.15553522109985352 -0.08820703625679016 0.06868305802345276 0.021449530497193336 0.1268044114112854 -0.07801854610443115 0.1002654880285263 -0.02478175237774849 0.03090684488415718 -0.028438961133360863 0.07291305810213089 0.01346062682569027 -0.12997813522815704 0.007450456731021404 -0.027860675007104874 0.016908960416913033 -0.01878768764436245 -0.0022067511454224586 -0.09416639804840088 -0.0033922973088920116 -0.05725496634840965 -0.1416647732257843 0.012438666075468063 0.07758577913045883 0.01661296747624874 -0.005180108826607466 0.023724421858787537 0.07525067776441574 -0.010414966382086277 0.020336708053946495 0.09549684822559357 -0.09859631210565567 -0.0030409707687795162 0.10451369732618332
pbd 0.002473653992637992 0.009675392881035805 -0.011154607869684696 0.13911259174346924 0.011279663071036339 -0.05430234968662262 -0.0836205780506134 -0.01724320277571678 0.02361152321100235 -0.06415785849094391 -0.0021414379589259624 -0.017570054158568382 0.09089447557926178 0.11594448983669281 0.0819535106420517 -0.030405526980757713 0.03004736639559269 -0.07603970170021057 0.06456968188285828 0.07880103588104248 -0.10807971656322479 -0.07746192067861557 -0.09377393126487732 0.14822079241275787 0.04458395019173622 -0.04681653156876564 -0.13300593197345734 0.04837220534682274 -0.11944039165973663 0.0015715876361355186 0.07832306623458862 -0.004033486358821392 0.1297936886548996 -0.07458828389644623 0.0076255351305007935 -0.027279620990157127 -0.008264600299298763 -0.05952605977654457 0.11384952813386917 -0.001309091690927744 -0.14237800240516663 -0.08401982486248016 0.16796177625656128 0.019159169867634773 0.013076609931886196 0.008552693761885166 0.020770572125911713 0.08744485676288605 0.2615307569503784 0.09046963602304459 -0.007423879113048315 -0.07355928421020508 0.006429392844438553 0.04068392515182495 0.13850031793117523 0.0010873666033148766 0.028226839378476143 0.19630536437034607 0.11620394140481949 0.07239632308483124 -0.0425686277449131 -0.0011970039922744036 -0.1191035583615303 0.12305913865566254 -0.13798917829990387 0.1260041445493698 0.15092411637306213 -0.10864195227622986 0.09036627411842346 0.0017837744671851397 0.14514650404453278 -0.014715097844600677 0.10167161375284195 0.009751450270414352 -0.02844645455479622 0.03783797472715378 0.09373025596141815 0.05841449648141861 -0.15639260411262512 -0.009324727579951286 -0.05584476888179779 0.07519694417715073 -0.04408864304423332 -0.07986956834793091 -0.08534912765026093 0.004666288383305073 -0.09244892001152039 -0.12933681905269623 -0.013189875520765781 0.04826921597123146 -0.04062330350279808 0.0304070096462965 -0.011580048128962517 0.09718626737594604 -0.018029192462563515 0.015075228177011013 0.02635791152715683 -0.14051923155784607 0.044351741671562195 0.10657051205635071
qcfabeaf 0.0024915356189012527 0.004861065652221441 -0.0032165334559977055 0.00434543751180172 -0.003663349198177457 -0.004082650411874056 -0.0019069778500124812 -0.001390162156894803 -0.001842623925767839 -6.624641828238964E-4 0.00456901965662837 0.00228261761367321 0.0030503077432513237 0.004781214985996485 -0.0025113217998296022 0.004288476891815662 -0.0010612771147862077 -0.004653794690966606 0.0018173664575442672 -0.003512386931106448 0.004879774060100317 0.004311746917665005 -0.0038942312821745872 -0.0036988062784075737 0.002300105057656765 0.002878024009987712 -0.0027716916520148516 -9.350090986117721E-4 -0.0021137872245162725 0.003136721905320883 -0.004215600900352001 0.003924303222447634 -0.0019370537484064698 -0.0034801445435732603 1.0294735693605617E-4 -0.0017248356016352773 -0.002294018166139722 -1.1535823432495818E-4 -0.00470383046194911 -0.0017096075462177396 0.0027669870760291815 -0.003926521632820368 0.0038030357100069523 -0.0032444328535348177 0.003080155234783888 0.002870307071134448 0.0016132694436237216 0.003893805667757988 -0.004797250498086214 -0.0017187782796099782 0.002604192588478327 -0.0023666354827582836 -0.003079022280871868 -8.018666412681341E-4 -0.001220808015204966 -1.8010317580774426E-4 0.002311460906639695 -0.002777867252007127 0.00357993901707232 0.0039045328740030527 0.001807098975405097 9.029567008838058E-4 -0.0033884625881910324 -0.004482195246964693 0.002692202338948846 -0.001725557493045926 -0.004656863398849964 -0.0013501867651939392 0.0035936308559030294 0.0028395133558660746 -5.375540349632502E-4 0.004351629409939051 -0.003915173001587391 1.0003209172282368E-4 -0.004525957629084587 -0.0026786010712385178 2.223819465143606E-4 -6.916019483469427E-4 7.638388779014349E-4 -6.346335867419839E-4 8.407169370912015E-4 -0.004588091280311346 -6.24922220595181E-4 0.0018021297873929143 0.00443588150665164 0.0014367479598149657 -1.4406442642211914E-4 -0.004155716393142939 0.003327807877212763 0.004952308721840382 0.001208520494401455 0.0022307084873318672 0.0017802697839215398 -0.004478648770600557 -0.004478714894503355 0.003065400058403611 0.002816187683492899 -0.004679461475461721 -0.003783500287681818 0.0016701739514246583
pbg 0.050277430564165115 0.062072496861219406 0.09656599164009094 -0.0961906909942627 0.016354775056242943 0.0044324398040771484 0.008049148134887218 -0.032697416841983795 0.13711638748645782 0.09480881690979004 -0.05481619015336037 0.04905848577618599 -0.045035526156425476 -0.06596443057060242 -0.06477642804384232 -0.040788907557725906 -0.0023268419317901134 0.10318190604448318 -0.038230050355196 -0.021741874516010284 0.052389319986104965 0.018427589908242226 0.13620251417160034 -0.1290048211812973 -0.12494613975286484 -0.0027385384310036898 0.07029762119054794 -0.05585186183452606 0.09810581058263779 0.06369687616825104 -0.06827737390995026 -0.03008604235947132 -0.04601268842816353 0.06748106330633163 -0.021147819235920906 -0.01735839433968067 -0.08441003412008286 0.11632663756608963 0.05734339728951454 -0.10802260786294937 0.09562794864177704 0.029186556115746498 -0.0835188776254654 -0.0405353419482708 0.05929325893521309 0.004779354203492403 -0.018583940342068672 0.029842056334018707 -0.2517368197441101 -0.03257042542099953 -0.05298065394163132 -0.004114583134651184 0.030637016519904137 -0.10979902744293213 -0.01731622777879238 -0.007118898909538984 -0.039905328303575516 -0.12713748216629028 -0.06722766906023026 -0.024716416373848915 -0.04054054245352745 -0.01693163998425007 0.09800951927900314 -0.1557200849056244 0.07481710612773895 -0.07426203787326813 -0.17765986919403076 0.06686283648014069 -0.11960801482200623 0.062940314412117 -0.11951775848865509 -0.03562364727258682 -0.006771080661565065 0.06437370181083679 0.08818437159061432 -0.006863387767225504 -0.02973160333931446 -0.09913906455039978 0.021013310179114342 0.023744836449623108 -0.041569583117961884 -0.033690694719552994 -0.07613220810890198 0.004780275747179985 0.07926617562770844 0.003946192562580109 0.06729821860790253 0.16688962280750275 -0.0020971973426640034 0.006797611713409424 0.06714154034852982 -9.125917858909816E-5 4.910034476779401E-4 -0.13147003948688507 -0.037739209830760956 0.05685444548726082 0.036369048058986664 0.012218808755278587 -0.0776510089635849 -0.14135630428791046
pbi 0.0021567288786172867 -0.004229041747748852 -0.005262718070298433 1.1683368938975036E-6 0.003962061367928982 -0.0034384268801659346 -0.003444462548941374 0.005787973292171955 0.001363971154205501 -0.0029413893353194 0.008121970109641552 -0.0015820411499589682 -6.510716048069298E-4 0.006551885511726141 0.006510911043733358 0.002413779264315963 -0.005107563454657793 -0.005479542072862387 4.188306338619441E-4 0.0015868815826252103 -0.0025707941967993975 -7.969585130922496E-4 -0.005382544361054897 0.015441217459738255 0.0071225520223379135 -0.002710212953388691 -0.006610488053411245 0.004099555779248476 -0.008813068270683289 -0.006319258362054825 0.006110498681664467 -0.007229036185890436 0.010431722737848759 -0.009383168071508408 -0.0038747217040508986 -0.004891905467957258 0.0023520139511674643 -0.013992991298437119 0.007200372405350208 0.005179719068109989 -0.013975247740745544 -0.0018806848675012589 0.012585523538291454 0.0019011952681466937 -0.009218449704349041 -0.005946275312453508 -0.0020873863250017166 -0.004584690555930138 0.021414902061223984 -0.0017757817404344678 -9.899536380544305E-4 -0.003195905825123191 0.0010753023670986295 0.008450190536677837 0.003315501846373081 0.0028946376405656338 0.010257144458591938 0.009339592419564724 0.0028636562637984753 0.004787774756550789 0.00462343217805028 -0.0044907210394740105 -0.008676821365952492 0.015871813520789146 -0.010861525312066078 0.00915572326630354 0.02181563340127468 0.0014972257195040584 0.0017297364538535476 0.002019519219174981 0.014469302259385586 -0.0012070457451045513 0.001811360940337181 -2.642253821250051E-4 -4.6366534661501646E-4 -7.168041775003076E-4 0.005533646792173386 0.013687312602996826 -0.0061454470269382 0.0011129097547382116 -0.006935897748917341 -0.003991346340626478 0.0015834913356229663 -2.0147787290625274E-4 -0.005539765115827322 0.005541932303458452 -0.008761103264987469 -0.00811611395329237 0.0027133761905133724 -3.393155930098146E-4 -0.00547395832836628 -0.0011954581132158637 -0.002156148198992014 0.010483039543032646 -6.533761625178158E-4 -0.004775813315063715 0.0033705588430166245 -0.002070622518658638 8.893071208149195E-4 0.0161984171718359
pbh 0.0033370538149029016 -0.0043462770991027355 5.397734348662198E-4 5.977704422548413E-4 0.007386447861790657 -0.003044883022084832 6.721308454871178E-5 -0.0027296694461256266 0.0024070991203188896 -7.796657155267894E-4 1.957607310032472E-4 0.003184983041137457 0.008046478033065796 0.006314664147794247 -2.1054601529613137E-4 0.0017071162583306432 -0.002120319753885269 -0.0013567347778007388 0.0011766488896682858 0.0024854824878275394 0.0011409163707867265 -0.0011363888625055552 -0.0018112994730472565 0.008811981417238712 0.0030991362873464823 -8.648853981867433E-4 -0.0028765560127794743 -0.0016379195731133223 -0.0021428547333925962 -0.006245320662856102 0.005584527738392353 -0.0017799843335524201 0.005595353897660971 -0.006625337991863489 0.0027010932099074125 -0.002062419895082712 0.002400294877588749 -9.436230175197124E-4 0.003865158185362816 0.002758332761004567 -0.007787902373820543 -8.625982445664704E-5 0.00515638617798686 0.006513519678264856 -0.0010032382560893893 0.0032411657739430666 -0.0018907685298472643 -9.437916451133788E-4 0.016782570630311966 -0.0030075237154960632 -0.005036679096519947 -9.882436133921146E-4 0.0024872603826224804 0.006236401852220297 2.307839458808303E-4 -5.041193799115717E-4 0.0024637209717184305 0.007905114442110062 0.007984999567270279 0.003227055771276355 -0.0010126460110768676 -0.0022522681392729282 -0.00664083706215024 0.011303070932626724 -0.005358976777642965 0.003468051552772522 0.009084837511181831 -0.007566794753074646 6.428709602914751E-4 0.004896462894976139 0.004842988681048155 7.809011149220169E-4 0.00863829255104065 -0.003761447034776211 -0.004209728445857763 -0.0023631348740309477 0.0015323999105021358 8.508100872859359E-4 -0.010315672494471073 0.003967675846070051 -0.003152125980705023 0.0021775104105472565 6.754248170182109E-4 -0.005173617508262396 -0.006574796047061682 -0.0014247219078242779 -0.0020433019381016493 -0.011559261940419674 0.004870689008384943 -0.0012670765863731503 0.002915834542363882 -0.003792394185438752 0.0015358378877863288 0.007870678789913654 -0.003506612265482545 -4.5747964759357274E-4 0.0029195724055171013 -0.008843381889164448 0.0037576917093247175 0.008348304778337479
qbbgddb -1.6286317259073257E-4 0.004112360067665577 -0.0015680891228839755 0.0046746437437832355 0.0036073257215321064 -6.605851813219488E-4 -0.004660789854824543 -0.004157107789069414 -6.976141594350338E-4 0.0033771395683288574 -0.001410795608535409 -0.002340560546144843 0.004547222517430782 -5.046094884164631E-4 -0.0019924326334148645 -0.0015798216918483377 8.604766917414963E-4 0.0038232409860938787 0.0020213196985423565 -0.0020484139677137136 3.3491221256554127E-4 0.0025373261887580156 0.0022365255281329155 0.0020216552074998617 0.0014540802221745253 -9.782499400898814E-4 -0.002702542580664158 0.002564480993896723 0.0018949898658320308 -0.004549195524305105 0.005494835786521435 0.003452432109043002 0.00817642081528902 -0.006688594818115234 0.003699070308357477 -1.278090348932892E-4 -0.0036509563215076923 -0.005168252158910036 0.005912137217819691 0.0031976422760635614 -0.0017834559548646212 0.0023588864132761955 0.002429327927529812 4.606662841979414E-4 -7.14292109478265E-5 0.005505823530256748 0.003933037165552378 -0.0026079074013978243 -1.4823919627815485E-4 -0.0010565652046352625 9.683766402304173E-4 0.0017787900287657976 0.004339765291661024 0.001567720901221037 0.0016008235979825258 -0.0020826533436775208 0.0067137666046619415 0.005135649349540472 0.00289823766797781 9.238089551217854E-4 -7.975584594532847E-5 -0.0014899647794663906 0.0016762128798291087 -0.0015145394718274474 -0.0042398725636303425 0.006619264837354422 0.0027590165846049786 -8.778551127761602E-4 0.004497595131397247 5.204346380196512E-4 0.0034654377959668636 -0.003290799679234624 -0.0026687579229474068 0.003885237267240882 -0.0038358422461897135 0.0012573659187182784 0.005179010331630707 0.001340305432677269 -2.975878887809813E-4 0.0050701843574643135 0.004409538581967354 0.0016109236748889089 0.0018099965527653694 -0.0032500592060387135 -0.0031242312397807837 -0.0020325989462435246 0.0030959437135607004 1.9844458438456059E-4 0.002260735956951976 -0.0016012836713343859 2.5155534967780113E-4 1.4159867714624852E-4 0.0011949605541303754 -6.534653948619962E-5 -0.0018039126880466938 6.669877329841256E-4 0.002843884052708745 -0.0037503628991544247 -6.909655057825148E-4 0.0011940286494791508
qiggda -1.5419429109897465E-4 8.077381644397974E-4 5.202895263209939E-4 0.0038975896313786507 1.7163343727588654E-4 0.0038359512109309435 -0.006129431538283825 2.4279890931211412E-4 -0.002638609614223242 -0.005450619850307703 -1.6269288607873023E-4 -0.0012419517152011395 0.01001240499317646 0.00602186331525445 0.005818740464746952 -0.003492686664685607 -0.0034286021254956722 -0.001242898404598236 -0.002064597327262163 0.007187756709754467 -0.00700197322294116 -0.0026276549324393272 -0.0017806956311687827 0.010499428026378155 -0.00116471026558429 -0.007687990553677082 -0.004321691580116749 0.006263683550059795 1.1825771071016788E-4 8.128316840156913E-4 0.0064569804817438126 -0.004442141391336918 0.010546647012233734 -0.003804129082709551 -0.00369464373216033 2.8191605815663934E-4 -0.0068727838806807995 -0.0050971233285963535 0.0038447354454547167 -0.0036158624570816755 -0.004758929368108511 -0.005515092983841896 0.010363580659031868 0.0030976617708802223 0.0011355631286278367 0.006512567400932312 -0.002433938207104802 0.005727543495595455 0.013960270211100578 -0.0018217881442978978 -0.0019413530826568604 -0.005350003018975258 -0.001626791199669242 0.006119490601122379 0.005067680962383747 0.005915927700698376 0.009288600645959377 0.006284702569246292 1.1877284850925207E-4 0.009419647976756096 0.0027346452698111534 -0.001970309531316161 -0.006467445287853479 0.010285700671374798 -0.006577102467417717 0.00894889235496521 0.010898343287408352 -0.0023536579683423042 0.003686305833980441 0.0044191740453243256 0.012797531671822071 -0.0063102953135967255 0.0014435200719162822 0.0026153260841965675 -0.0010302512673661113 1.770385424606502E-4 0.004985063802450895 0.0063816760666668415 -0.005055406596511602 -0.0046567535027861595 0.002336848760023713 0.0035495522897690535 -0.0038159945979714394 3.0065805185586214E-4 -0.009889481589198112 -1.072419763659127E-5 -0.0018209473928436637 -0.005975884851068258 0.001876428839750588 0.005949218757450581 0.005073545500636101 -0.002305950503796339 -0.002374080242589116 0.00225389888510108 0.0014289328828454018 -0.003937119618058205 0.002589565236121416 -0.003964446950703859 0.00442101713269949 0.0089858528226614
qhbbigi 0.0033752266317605972 -0.005623530130833387 -0.003172845346853137 -6.017162231728435E-4 0.004794582724571228 2.061032282654196E-4 -7.13697518222034E-4 -0.002159989671781659 0.0016527081606909633 -0.005539293400943279 0.0021382856648415327 -0.004548142198473215 0.01059314887970686 0.010118131525814533 0.0023611211217939854 9.103677584789693E-4 0.0020250347442924976 -9.244394022971392E-4 9.133276180364192E-4 0.005072866566479206 -0.007600754965096712 -0.011788367293775082 -0.009173450991511345 0.006950067356228828 0.006850428879261017 -0.00936307292431593 -0.015469959937036037 9.882975136861205E-4 -0.0023095495998859406 -0.006609799340367317 0.00495492247864604 0.0011082753771916032 0.01626240648329258 -0.008649216033518314 0.0010887662647292018 -0.005245473701506853 -0.005071701016277075 -0.002267289673909545 0.01159893348813057 0.0022411143872886896 -0.0016147097339853644 -0.008064149878919125 0.009895364753901958 0.00825352780520916 -3.894781693816185E-4 -1.37698560138233E-4 1.8312148313270882E-6 -0.0012951166136190295 0.017436066642403603 0.004457438830286264 0.00235094060190022 -0.008233508095145226 0.006218599155545235 0.01068287342786789 8.680083556100726E-4 0.0037736212834715843 0.007352469954639673 0.012445584870874882 0.00532359117642045 0.006947383750230074 0.003178429789841175 0.0017691313987597823 -0.00606454536318779 0.009816274978220463 -0.00634532468393445 0.012237275950610638 0.009898302145302296 -0.007473232690244913 0.010036896914243698 0.0015614129370078444 0.007612952962517738 -0.0020791671704500914 0.0098900580778718 0.0021833975333720446 0.003003460355103016 0.0013729684287682176 0.0027652597054839134 0.002039442304521799 -0.01337838638573885 0.0029265217017382383 -0.0016044069780036807 -0.0025237686932086945 -0.0010579050285741687 -0.005905442405492067 -0.009089376777410507 0.003490355098620057 -0.008656621910631657 -0.01270056888461113 -0.0030587422661483288 0.006427197251468897 0.0040715839713811874 4.98083361890167E-4 0.004646108485758305 0.00856604240834713 -0.003842154983431101 0.004336804151535034 0.004055739380419254 -0.004282303620129824 0.002485237317159772 0.013460579328238964
